svm_type c_svc
kernel_type rbf
gamma 0.5
nr_class 2
total_sv 9
rho 32.25
label 1 -1
nr_sv 5 4
SV
387.5445197657895 1:0.774 2:0.376 
967.9238158387034 1:0.556 2:0.215 
473.5255161461921 1:0.403 2:0.237 
1000 1:0.481 2:0.149 
1000 1:0.437 2:0.211 
-828.9938517506851 1:0.343 2:0.099 
-1000 1:0.639 2:0.161 
-1000 1:0.657 2:0.198 
-1000 1:0.36 2:0.37 
